digraph Tree {
node [shape=box, style="filled, rounded", color="black", fontname=helvetica] ;
edge [fontname=helvetica] ;
0 [label="petal length (cm) <= 2.45\ngini = 0.66\nsamples = 93\nvalue = [51, 58, 41]\nclass = versicolor", fillcolor="#f1fdf6"] ;
1 [label="gini = 0.0\nsamples = 28\nvalue = [51, 0, 0]\nclass = setosa", fillcolor="#e58139"] ;
0 -> 1 [labeldistance=2.5, labelangle=45, headlabel="True"] ;
2 [label="petal width (cm) <= 1.65\ngini = 0.49\nsamples = 65\nvalue = [0, 58, 41]\nclass = versicolor", fillcolor="#c5f7da"] ;
0 -> 2 [labeldistance=2.5, labelangle=-45, headlabel="False"] ;
3 [label="sepal length (cm) <= 7.1\ngini = 0.12\nsamples = 36\nvalue = [0, 56, 4]\nclass = versicolor", fillcolor="#47e78a"] ;
2 -> 3 ;
4 [label="petal length (cm) <= 4.95\ngini = 0.1\nsamples = 35\nvalue = [0, 56, 3]\nclass = versicolor", fillcolor="#44e688"] ;
3 -> 4 ;
5 [label="gini = 0.0\nsamples = 32\nvalue = [0, 54, 0]\nclass = versicolor", fillcolor="#39e581"] ;
4 -> 5 ;
6 [label="petal width (cm) <= 1.55\ngini = 0.48\nsamples = 3\nvalue = [0, 2, 3]\nclass = virginica", fillcolor="#d5bdf6"] ;
4 -> 6 ;
7 [label="gini = 0.0\nsamples = 2\nvalue = [0, 0, 3]\nclass = virginica", fillcolor="#8139e5"] ;
6 -> 7 ;
8 [label="gini = 0.0\nsamples = 1\nvalue = [0, 2, 0]\nclass = versicolor", fillcolor="#39e581"] ;
6 -> 8 ;
9 [label="gini = 0.0\nsamples = 1\nvalue = [0, 0, 1]\nclass = virginica", fillcolor="#8139e5"] ;
3 -> 9 ;
10 [label="petal length (cm) <= 5.05\ngini = 0.1\nsamples = 29\nvalue = [0, 2, 37]\nclass = virginica", fillcolor="#8844e6"] ;
2 -> 10 ;
11 [label="sepal width (cm) <= 2.9\ngini = 0.32\nsamples = 7\nvalue = [0, 2, 8]\nclass = virginica", fillcolor="#a06aec"] ;
10 -> 11 ;
12 [label="gini = 0.0\nsamples = 4\nvalue = [0, 0, 7]\nclass = virginica", fillcolor="#8139e5"] ;
11 -> 12 ;
13 [label="petal length (cm) <= 4.85\ngini = 0.44\nsamples = 3\nvalue = [0, 2, 1]\nclass = versicolor", fillcolor="#9cf2c0"] ;
11 -> 13 ;
14 [label="gini = 0.0\nsamples = 1\nvalue = [0, 1, 0]\nclass = versicolor", fillcolor="#39e581"] ;
13 -> 14 ;
15 [label="sepal length (cm) <= 6.4\ngini = 0.5\nsamples = 2\nvalue = [0, 1, 1]\nclass = versicolor", fillcolor="#ffffff"] ;
13 -> 15 ;
16 [label="gini = 0.0\nsamples = 1\nvalue = [0, 0, 1]\nclass = virginica", fillcolor="#8139e5"] ;
15 -> 16 ;
17 [label="gini = 0.0\nsamples = 1\nvalue = [0, 1, 0]\nclass = versicolor", fillcolor="#39e581"] ;
15 -> 17 ;
18 [label="gini = 0.0\nsamples = 22\nvalue = [0, 0, 29]\nclass = virginica", fillcolor="#8139e5"] ;
10 -> 18 ;
}